digraph Tree {
node [shape=box, style="filled, rounded", color="black", fontname=helvetica] ;
edge [fontname=helvetica] ;
0 [label="X[2] <= 246.8\nentropy = 0.62\nsamples = 1682\nvalue = [2255, 411]", fillcolor="#ea985d"] ;
1 [label="X[3] <= 119.65\nentropy = 0.499\nsamples = 1505\nvalue = [2128, 262]", fillcolor="#e89151"] ;
0 -> 1 [labeldistance=2.5, labelangle=45, headlabel="True"] ;
2 [label="X[2] <= 113.15\nentropy = 0.811\nsamples = 71\nvalue = [87, 29]", fillcolor="#eeab7b"] ;
1 -> 2 ;
3 [label="X[6] <= 4.0\nentropy = 0.971\nsamples = 9\nvalue = [6, 9]", fillcolor="#bddef6"] ;
2 -> 3 ;
4 [label="X[5] <= 10.7\nentropy = 0.503\nsamples = 4\nvalue = [1, 8]", fillcolor="#52a9e8"] ;
3 -> 4 ;
5 [label="entropy = 0.0\nsamples = 1\nvalue = [1, 0]", fillcolor="#e58139"] ;
4 -> 5 ;
6 [label="entropy = 0.0\nsamples = 3\nvalue = [0, 8]", fillcolor="#399de5"] ;
4 -> 6 ;
7 [label="X[7] <= 3.5\nentropy = 0.65\nsamples = 5\nvalue = [5, 1]", fillcolor="#ea9a61"] ;
3 -> 7 ;
8 [label="entropy = 0.0\nsamples = 4\nvalue = [5, 0]", fillcolor="#e58139"] ;
7 -> 8 ;
9 [label="entropy = 0.0\nsamples = 1\nvalue = [0, 1]", fillcolor="#399de5"] ;
7 -> 9 ;
10 [label="X[5] <= 12.3\nentropy = 0.718\nsamples = 62\nvalue = [81, 20]", fillcolor="#eba06a"] ;
2 -> 10 ;
11 [label="X[2] <= 176.6\nentropy = 0.255\nsamples = 43\nvalue = [67, 3]", fillcolor="#e68742"] ;
10 -> 11 ;
12 [label="entropy = 0.0\nsamples = 23\nvalue = [36, 0]", fillcolor="#e58139"] ;
11 -> 12 ;
13 [label="X[7] <= 3.5\nentropy = 0.431\nsamples = 20\nvalue = [31, 3]", fillcolor="#e88d4c"] ;
11 -> 13 ;
14 [label="entropy = 0.0\nsamples = 17\nvalue = [30, 0]", fillcolor="#e58139"] ;
13 -> 14 ;
15 [label="X[2] <= 216.0\nentropy = 0.811\nsamples = 3\nvalue = [1, 3]", fillcolor="#7bbeee"] ;
13 -> 15 ;
16 [label="entropy = 0.0\nsamples = 2\nvalue = [0, 3]", fillcolor="#399de5"] ;
15 -> 16 ;
17 [label="entropy = 0.0\nsamples = 1\nvalue = [1, 0]", fillcolor="#e58139"] ;
15 -> 17 ;
18 [label="X[0] <= 0.5\nentropy = 0.993\nsamples = 19\nvalue = [14, 17]", fillcolor="#dceefa"] ;
10 -> 18 ;
19 [label="X[6] <= 10.5\nentropy = 0.946\nsamples = 15\nvalue = [14, 8]", fillcolor="#f4c9aa"] ;
18 -> 19 ;
20 [label="X[4] <= 200.05\nentropy = 0.831\nsamples = 14\nvalue = [14, 5]", fillcolor="#eeae80"] ;
19 -> 20 ;
21 [label="entropy = 0.0\nsamples = 7\nvalue = [7, 0]", fillcolor="#e58139"] ;
20 -> 21 ;
22 [label="X[3] <= 112.4\nentropy = 0.98\nsamples = 7\nvalue = [7, 5]", fillcolor="#f8dbc6"] ;
20 -> 22 ;
23 [label="X[2] <= 201.95\nentropy = 0.954\nsamples = 5\nvalue = [3, 5]", fillcolor="#b0d8f5"] ;
22 -> 23 ;
24 [label="X[1] <= 0.5\nentropy = 0.65\nsamples = 3\nvalue = [1, 5]", fillcolor="#61b1ea"] ;
23 -> 24 ;
25 [label="entropy = 0.0\nsamples = 2\nvalue = [0, 5]", fillcolor="#399de5"] ;
24 -> 25 ;
26 [label="entropy = 0.0\nsamples = 1\nvalue = [1, 0]", fillcolor="#e58139"] ;
24 -> 26 ;
27 [label="entropy = 0.0\nsamples = 2\nvalue = [2, 0]", fillcolor="#e58139"] ;
23 -> 27 ;
28 [label="entropy = 0.0\nsamples = 2\nvalue = [4, 0]", fillcolor="#e58139"] ;
22 -> 28 ;
29 [label="entropy = 0.0\nsamples = 1\nvalue = [0, 3]", fillcolor="#399de5"] ;
19 -> 29 ;
30 [label="entropy = 0.0\nsamples = 4\nvalue = [0, 9]", fillcolor="#399de5"] ;
18 -> 30 ;
31 [label="X[7] <= 3.5\nentropy = 0.477\nsamples = 1434\nvalue = [2041, 233]", fillcolor="#e88f50"] ;
1 -> 31 ;
32 [label="X[2] <= 217.15\nentropy = 0.361\nsamples = 1309\nvalue = [1935, 143]", fillcolor="#e78a48"] ;
31 -> 32 ;
33 [label="X[6] <= 19.0\nentropy = 0.291\nsamples = 1113\nvalue = [1669, 90]", fillcolor="#e68844"] ;
32 -> 33 ;
34 [label="X[0] <= 0.5\nentropy = 0.282\nsamples = 1112\nvalue = [1669, 86]", fillcolor="#e68743"] ;
33 -> 34 ;
35 [label="X[7] <= 2.5\nentropy = 0.192\nsamples = 1031\nvalue = [1579, 48]", fillcolor="#e6853f"] ;
34 -> 35 ;
36 [label="X[7] <= 0.5\nentropy = 0.209\nsamples = 917\nvalue = [1406, 48]", fillcolor="#e68540"] ;
35 -> 36 ;
37 [label="X[6] <= 3.5\nentropy = 0.087\nsamples = 226\nvalue = [359, 4]", fillcolor="#e5823b"] ;
36 -> 37 ;
38 [label="X[6] <= 2.5\nentropy = 0.154\nsamples = 83\nvalue = [132, 3]", fillcolor="#e6843d"] ;
37 -> 38 ;
39 [label="entropy = 0.0\nsamples = 41\nvalue = [74, 0]", fillcolor="#e58139"] ;
38 -> 39 ;
40 [label="X[2] <= 165.0\nentropy = 0.283\nsamples = 42\nvalue = [58, 3]", fillcolor="#e68843"] ;
38 -> 40 ;
41 [label="entropy = 0.0\nsamples = 19\nvalue = [26, 0]", fillcolor="#e58139"] ;
40 -> 41 ;
42 [label="X[4] <= 273.45\nentropy = 0.422\nsamples = 23\nvalue = [32, 3]", fillcolor="#e78d4c"] ;
40 -> 42 ;
43 [label="X[2] <= 165.95\nentropy = 0.201\nsamples = 20\nvalue = [31, 1]", fillcolor="#e6853f"] ;
42 -> 43 ;
44 [label="entropy = 0.0\nsamples = 1\nvalue = [0, 1]", fillcolor="#399de5"] ;
43 -> 44 ;
45 [label="entropy = 0.0\nsamples = 19\nvalue = [31, 0]", fillcolor="#e58139"] ;
43 -> 45 ;
46 [label="X[2] <= 171.7\nentropy = 0.918\nsamples = 3\nvalue = [1, 2]", fillcolor="#9ccef2"] ;
42 -> 46 ;
47 [label="entropy = 0.0\nsamples = 1\nvalue = [0, 1]", fillcolor="#399de5"] ;
46 -> 47 ;
48 [label="X[5] <= 7.1\nentropy = 1.0\nsamples = 2\nvalue = [1, 1]", fillcolor="#ffffff"] ;
46 -> 48 ;
49 [label="entropy = 0.0\nsamples = 1\nvalue = [1, 0]", fillcolor="#e58139"] ;
48 -> 49 ;
50 [label="entropy = 0.0\nsamples = 1\nvalue = [0, 1]", fillcolor="#399de5"] ;
48 -> 50 ;
51 [label="X[6] <= 6.5\nentropy = 0.041\nsamples = 143\nvalue = [227, 1]", fillcolor="#e5823a"] ;
37 -> 51 ;
52 [label="entropy = 0.0\nsamples = 107\nvalue = [177, 0]", fillcolor="#e58139"] ;
51 -> 52 ;
53 [label="X[3] <= 172.25\nentropy = 0.139\nsamples = 36\nvalue = [50, 1]", fillcolor="#e6843d"] ;
51 -> 53 ;
54 [label="X[6] <= 7.5\nentropy = 0.469\nsamples = 9\nvalue = [9, 1]", fillcolor="#e88f4f"] ;
53 -> 54 ;
55 [label="X[2] <= 105.25\nentropy = 0.918\nsamples = 3\nvalue = [2, 1]", fillcolor="#f2c09c"] ;
54 -> 55 ;
56 [label="entropy = 0.0\nsamples = 2\nvalue = [2, 0]", fillcolor="#e58139"] ;
55 -> 56 ;
57 [label="entropy = 0.0\nsamples = 1\nvalue = [0, 1]", fillcolor="#399de5"] ;
55 -> 57 ;
58 [label="entropy = 0.0\nsamples = 6\nvalue = [7, 0]", fillcolor="#e58139"] ;
54 -> 58 ;
59 [label="entropy = 0.0\nsamples = 27\nvalue = [41, 0]", fillcolor="#e58139"] ;
53 -> 59 ;
60 [label="X[6] <= 8.5\nentropy = 0.244\nsamples = 691\nvalue = [1047, 44]", fillcolor="#e68641"] ;
36 -> 60 ;
61 [label="X[5] <= 12.55\nentropy = 0.256\nsamples = 643\nvalue = [980, 44]", fillcolor="#e68742"] ;
60 -> 61 ;
62 [label="X[4] <= 129.75\nentropy = 0.296\nsamples = 512\nvalue = [779, 43]", fillcolor="#e68844"] ;
61 -> 62 ;
63 [label="entropy = 0.0\nsamples = 38\nvalue = [62, 0]", fillcolor="#e58139"] ;
62 -> 63 ;
64 [label="X[3] <= 200.85\nentropy = 0.314\nsamples = 474\nvalue = [717, 43]", fillcolor="#e78945"] ;
62 -> 64 ;
65 [label="X[6] <= 5.5\nentropy = 0.193\nsamples = 227\nvalue = [360, 11]", fillcolor="#e6853f"] ;
64 -> 65 ;
66 [label="X[6] <= 1.5\nentropy = 0.23\nsamples = 181\nvalue = [284, 11]", fillcolor="#e68641"] ;
65 -> 66 ;
67 [label="entropy = 0.0\nsamples = 10\nvalue = [18, 0]", fillcolor="#e58139"] ;
66 -> 67 ;
68 [label="X[1] <= 0.5\nentropy = 0.241\nsamples = 171\nvalue = [266, 11]", fillcolor="#e68641"] ;
66 -> 68 ;
69 [label="X[7] <= 1.5\nentropy = 0.278\nsamples = 120\nvalue = [178, 9]", fillcolor="#e68743"] ;
68 -> 69 ;
70 [label="X[2] <= 113.15\nentropy = 0.237\nsamples = 67\nvalue = [99, 4]", fillcolor="#e68641"] ;
69 -> 70 ;
71 [label="X[3] <= 168.0\nentropy = 0.592\nsamples = 9\nvalue = [12, 2]", fillcolor="#e9965a"] ;
70 -> 71 ;
72 [label="entropy = 0.0\nsamples = 5\nvalue = [8, 0]", fillcolor="#e58139"] ;
71 -> 72 ;
73 [label="X[6] <= 2.5\nentropy = 0.918\nsamples = 4\nvalue = [4, 2]", fillcolor="#f2c09c"] ;
71 -> 73 ;
74 [label="entropy = 0.0\nsamples = 1\nvalue = [0, 1]", fillcolor="#399de5"] ;
73 -> 74 ;
75 [label="X[2] <= 68.75\nentropy = 0.722\nsamples = 3\nvalue = [4, 1]", fillcolor="#eca06a"] ;
73 -> 75 ;
76 [label="entropy = 0.0\nsamples = 1\nvalue = [2, 0]", fillcolor="#e58139"] ;
75 -> 76 ;
77 [label="X[2] <= 94.2\nentropy = 0.918\nsamples = 2\nvalue = [2, 1]", fillcolor="#f2c09c"] ;
75 -> 77 ;
78 [label="entropy = 0.0\nsamples = 1\nvalue = [0, 1]", fillcolor="#399de5"] ;
77 -> 78 ;
79 [label="entropy = 0.0\nsamples = 1\nvalue = [2, 0]", fillcolor="#e58139"] ;
77 -> 79 ;
80 [label="X[3] <= 189.2\nentropy = 0.155\nsamples = 58\nvalue = [87, 2]", fillcolor="#e6843e"] ;
70 -> 80 ;
81 [label="entropy = 0.0\nsamples = 45\nvalue = [68, 0]", fillcolor="#e58139"] ;
80 -> 81 ;
82 [label="X[4] <= 291.65\nentropy = 0.454\nsamples = 13\nvalue = [19, 2]", fillcolor="#e88e4e"] ;
80 -> 82 ;
83 [label="entropy = 0.0\nsamples = 11\nvalue = [17, 0]", fillcolor="#e58139"] ;
82 -> 83 ;
84 [label="X[6] <= 3.0\nentropy = 1.0\nsamples = 2\nvalue = [2, 2]", fillcolor="#ffffff"] ;
82 -> 84 ;
85 [label="entropy = 0.0\nsamples = 1\nvalue = [2, 0]", fillcolor="#e58139"] ;
84 -> 85 ;
86 [label="entropy = 0.0\nsamples = 1\nvalue = [0, 2]", fillcolor="#399de5"] ;
84 -> 86 ;
87 [label="X[4] <= 209.15\nentropy = 0.326\nsamples = 53\nvalue = [79, 5]", fillcolor="#e78946"] ;
69 -> 87 ;
88 [label="entropy = 0.0\nsamples = 33\nvalue = [52, 0]", fillcolor="#e58139"] ;
87 -> 88 ;
89 [label="X[4] <= 212.0\nentropy = 0.625\nsamples = 20\nvalue = [27, 5]", fillcolor="#ea985e"] ;
87 -> 89 ;
90 [label="entropy = 0.0\nsamples = 1\nvalue = [0, 2]", fillcolor="#399de5"] ;
89 -> 90 ;
91 [label="X[3] <= 132.8\nentropy = 0.469\nsamples = 19\nvalue = [27, 3]", fillcolor="#e88f4f"] ;
89 -> 91 ;
92 [label="X[4] <= 234.2\nentropy = 0.811\nsamples = 2\nvalue = [1, 3]", fillcolor="#7bbeee"] ;
91 -> 92 ;
93 [label="entropy = 0.0\nsamples = 1\nvalue = [1, 0]", fillcolor="#e58139"] ;
92 -> 93 ;
94 [label="entropy = 0.0\nsamples = 1\nvalue = [0, 3]", fillcolor="#399de5"] ;
92 -> 94 ;
95 [label="entropy = 0.0\nsamples = 17\nvalue = [26, 0]", fillcolor="#e58139"] ;
91 -> 95 ;
96 [label="X[4] <= 275.25\nentropy = 0.154\nsamples = 51\nvalue = [88, 2]", fillcolor="#e6843d"] ;
68 -> 96 ;
97 [label="X[3] <= 179.8\nentropy = 0.089\nsamples = 50\nvalue = [88, 1]", fillcolor="#e5823b"] ;
96 -> 97 ;
98 [label="entropy = 0.0\nsamples = 38\nvalue = [70, 0]", fillcolor="#e58139"] ;
97 -> 98 ;
99 [label="X[3] <= 182.0\nentropy = 0.297\nsamples = 12\nvalue = [18, 1]", fillcolor="#e68844"] ;
97 -> 99 ;
100 [label="X[2] <= 150.8\nentropy = 0.811\nsamples = 2\nvalue = [3, 1]", fillcolor="#eeab7b"] ;
99 -> 100 ;
101 [label="entropy = 0.0\nsamples = 1\nvalue = [0, 1]", fillcolor="#399de5"] ;
100 -> 101 ;
102 [label="entropy = 0.0\nsamples = 1\nvalue = [3, 0]", fillcolor="#e58139"] ;
100 -> 102 ;
103 [label="entropy = 0.0\nsamples = 10\nvalue = [15, 0]", fillcolor="#e58139"] ;
99 -> 103 ;
104 [label="entropy = 0.0\nsamples = 1\nvalue = [0, 1]", fillcolor="#399de5"] ;
96 -> 104 ;
105 [label="entropy = 0.0\nsamples = 46\nvalue = [76, 0]", fillcolor="#e58139"] ;
65 -> 105 ;
106 [label="X[2] <= 184.6\nentropy = 0.41\nsamples = 247\nvalue = [357, 32]", fillcolor="#e78c4b"] ;
64 -> 106 ;
107 [label="X[2] <= 97.35\nentropy = 0.307\nsamples = 174\nvalue = [258, 15]", fillcolor="#e78845"] ;
106 -> 107 ;
108 [label="X[5] <= 8.55\nentropy = 0.614\nsamples = 21\nvalue = [28, 5]", fillcolor="#ea985c"] ;
107 -> 108 ;
109 [label="entropy = 0.0\nsamples = 7\nvalue = [13, 0]", fillcolor="#e58139"] ;
108 -> 109 ;
110 [label="X[2] <= 88.25\nentropy = 0.811\nsamples = 14\nvalue = [15, 5]", fillcolor="#eeab7b"] ;
108 -> 110 ;
111 [label="X[2] <= 80.2\nentropy = 0.353\nsamples = 11\nvalue = [14, 1]", fillcolor="#e78a47"] ;
110 -> 111 ;
112 [label="entropy = 0.0\nsamples = 8\nvalue = [11, 0]", fillcolor="#e58139"] ;
111 -> 112 ;
113 [label="X[2] <= 84.1\nentropy = 0.811\nsamples = 3\nvalue = [3, 1]", fillcolor="#eeab7b"] ;
111 -> 113 ;
114 [label="entropy = 0.0\nsamples = 1\nvalue = [0, 1]", fillcolor="#399de5"] ;
113 -> 114 ;
115 [label="entropy = 0.0\nsamples = 2\nvalue = [3, 0]", fillcolor="#e58139"] ;
113 -> 115 ;
116 [label="X[4] <= 190.05\nentropy = 0.722\nsamples = 3\nvalue = [1, 4]", fillcolor="#6ab6ec"] ;
110 -> 116 ;
117 [label="entropy = 0.0\nsamples = 2\nvalue = [0, 4]", fillcolor="#399de5"] ;
116 -> 117 ;
118 [label="entropy = 0.0\nsamples = 1\nvalue = [1, 0]", fillcolor="#e58139"] ;
116 -> 118 ;
119 [label="X[6] <= 3.5\nentropy = 0.25\nsamples = 153\nvalue = [230, 10]", fillcolor="#e68642"] ;
107 -> 119 ;
120 [label="X[5] <= 11.55\nentropy = 0.085\nsamples = 59\nvalue = [93, 1]", fillcolor="#e5823b"] ;
119 -> 120 ;
121 [label="entropy = 0.0\nsamples = 52\nvalue = [85, 0]", fillcolor="#e58139"] ;
120 -> 121 ;
122 [label="X[5] <= 11.65\nentropy = 0.503\nsamples = 7\nvalue = [8, 1]", fillcolor="#e89152"] ;
120 -> 122 ;
123 [label="entropy = 0.0\nsamples = 1\nvalue = [0, 1]", fillcolor="#399de5"] ;
122 -> 123 ;
124 [label="entropy = 0.0\nsamples = 6\nvalue = [8, 0]", fillcolor="#e58139"] ;
122 -> 124 ;
125 [label="X[7] <= 1.5\nentropy = 0.334\nsamples = 94\nvalue = [137, 9]", fillcolor="#e78946"] ;
119 -> 125 ;
126 [label="X[5] <= 12.25\nentropy = 0.443\nsamples = 56\nvalue = [79, 8]", fillcolor="#e88e4d"] ;
125 -> 126 ;
127 [label="X[4] <= 222.95\nentropy = 0.35\nsamples = 52\nvalue = [71, 5]", fillcolor="#e78a47"] ;
126 -> 127 ;
128 [label="X[5] <= 10.25\nentropy = 0.482\nsamples = 32\nvalue = [43, 5]", fillcolor="#e89050"] ;
127 -> 128 ;
129 [label="X[3] <= 229.5\nentropy = 0.722\nsamples = 18\nvalue = [20, 5]", fillcolor="#eca06a"] ;
128 -> 129 ;
130 [label="X[5] <= 8.9\nentropy = 0.991\nsamples = 7\nvalue = [4, 5]", fillcolor="#d7ebfa"] ;
129 -> 130 ;
131 [label="X[2] <= 110.65\nentropy = 0.722\nsamples = 5\nvalue = [4, 1]", fillcolor="#eca06a"] ;
130 -> 131 ;
132 [label="entropy = 0.0\nsamples = 1\nvalue = [0, 1]", fillcolor="#399de5"] ;
131 -> 132 ;
133 [label="entropy = 0.0\nsamples = 4\nvalue = [4, 0]", fillcolor="#e58139"] ;
131 -> 133 ;
134 [label="entropy = 0.0\nsamples = 2\nvalue = [0, 4]", fillcolor="#399de5"] ;
130 -> 134 ;
135 [label="entropy = 0.0\nsamples = 11\nvalue = [16, 0]", fillcolor="#e58139"] ;
129 -> 135 ;
136 [label="entropy = 0.0\nsamples = 14\nvalue = [23, 0]", fillcolor="#e58139"] ;
128 -> 136 ;
137 [label="entropy = 0.0\nsamples = 20\nvalue = [28, 0]", fillcolor="#e58139"] ;
127 -> 137 ;
138 [label="X[3] <= 219.65\nentropy = 0.845\nsamples = 4\nvalue = [8, 3]", fillcolor="#efb083"] ;
126 -> 138 ;
139 [label="entropy = 0.0\nsamples = 2\nvalue = [5, 0]", fillcolor="#e58139"] ;
138 -> 139 ;
140 [label="X[3] <= 225.85\nentropy = 1.0\nsamples = 2\nvalue = [3, 3]", fillcolor="#ffffff"] ;
138 -> 140 ;
141 [label="entropy = 0.0\nsamples = 1\nvalue = [0, 3]", fillcolor="#399de5"] ;
140 -> 141 ;
142 [label="entropy = 0.0\nsamples = 1\nvalue = [3, 0]", fillcolor="#e58139"] ;
140 -> 142 ;
143 [label="X[4] <= 178.8\nentropy = 0.124\nsamples = 38\nvalue = [58, 1]", fillcolor="#e5833c"] ;
125 -> 143 ;
144 [label="X[5] <= 9.15\nentropy = 0.353\nsamples = 11\nvalue = [14, 1]", fillcolor="#e78a47"] ;
143 -> 144 ;
145 [label="entropy = 0.0\nsamples = 7\nvalue = [11, 0]", fillcolor="#e58139"] ;
144 -> 145 ;
146 [label="X[5] <= 9.7\nentropy = 0.811\nsamples = 4\nvalue = [3, 1]", fillcolor="#eeab7b"] ;
144 -> 146 ;
147 [label="entropy = 0.0\nsamples = 1\nvalue = [0, 1]", fillcolor="#399de5"] ;
146 -> 147 ;
148 [label="entropy = 0.0\nsamples = 3\nvalue = [3, 0]", fillcolor="#e58139"] ;
146 -> 148 ;
149 [label="entropy = 0.0\nsamples = 27\nvalue = [44, 0]", fillcolor="#e58139"] ;
143 -> 149 ;
150 [label="X[6] <= 7.0\nentropy = 0.601\nsamples = 73\nvalue = [99, 17]", fillcolor="#e9975b"] ;
106 -> 150 ;
151 [label="X[4] <= 131.6\nentropy = 0.625\nsamples = 70\nvalue = [92, 17]", fillcolor="#ea985e"] ;
150 -> 151 ;
152 [label="entropy = 0.0\nsamples = 1\nvalue = [0, 2]", fillcolor="#399de5"] ;
151 -> 152 ;
153 [label="X[4] <= 191.15\nentropy = 0.585\nsamples = 69\nvalue = [92, 15]", fillcolor="#e99659"] ;
151 -> 153 ;
154 [label="X[5] <= 6.0\nentropy = 0.149\nsamples = 31\nvalue = [46, 1]", fillcolor="#e6843d"] ;
153 -> 154 ;
155 [label="X[5] <= 5.2\nentropy = 1.0\nsamples = 2\nvalue = [1, 1]", fillcolor="#ffffff"] ;
154 -> 155 ;
156 [label="entropy = 0.0\nsamples = 1\nvalue = [1, 0]", fillcolor="#e58139"] ;
155 -> 156 ;
157 [label="entropy = 0.0\nsamples = 1\nvalue = [0, 1]", fillcolor="#399de5"] ;
155 -> 157 ;
158 [label="entropy = 0.0\nsamples = 29\nvalue = [45, 0]", fillcolor="#e58139"] ;
154 -> 158 ;
159 [label="X[7] <= 1.5\nentropy = 0.784\nsamples = 38\nvalue = [46, 14]", fillcolor="#eda775"] ;
153 -> 159 ;
160 [label="X[2] <= 195.85\nentropy = 0.689\nsamples = 22\nvalue = [31, 7]", fillcolor="#eb9d66"] ;
159 -> 160 ;
161 [label="X[6] <= 2.5\nentropy = 0.937\nsamples = 9\nvalue = [11, 6]", fillcolor="#f3c6a5"] ;
160 -> 161 ;
162 [label="entropy = 0.0\nsamples = 2\nvalue = [4, 0]", fillcolor="#e58139"] ;
161 -> 162 ;
163 [label="X[1] <= 0.5\nentropy = 0.996\nsamples = 7\nvalue = [7, 6]", fillcolor="#fbede3"] ;
161 -> 163 ;
164 [label="X[2] <= 192.85\nentropy = 0.811\nsamples = 4\nvalue = [2, 6]", fillcolor="#7bbeee"] ;
163 -> 164 ;
165 [label="X[6] <= 4.5\nentropy = 1.0\nsamples = 3\nvalue = [2, 2]", fillcolor="#ffffff"] ;
164 -> 165 ;
166 [label="entropy = 0.0\nsamples = 1\nvalue = [1, 0]", fillcolor="#e58139"] ;
165 -> 166 ;
167 [label="X[2] <= 188.2\nentropy = 0.918\nsamples = 2\nvalue = [1, 2]", fillcolor="#9ccef2"] ;
165 -> 167 ;
168 [label="entropy = 0.0\nsamples = 1\nvalue = [1, 0]", fillcolor="#e58139"] ;
167 -> 168 ;
169 [label="entropy = 0.0\nsamples = 1\nvalue = [0, 2]", fillcolor="#399de5"] ;
167 -> 169 ;
170 [label="entropy = 0.0\nsamples = 1\nvalue = [0, 4]", fillcolor="#399de5"] ;
164 -> 170 ;
171 [label="entropy = 0.0\nsamples = 3\nvalue = [5, 0]", fillcolor="#e58139"] ;
163 -> 171 ;
172 [label="X[1] <= 0.5\nentropy = 0.276\nsamples = 13\nvalue = [20, 1]", fillcolor="#e68743"] ;
160 -> 172 ;
173 [label="X[2] <= 211.4\nentropy = 0.371\nsamples = 9\nvalue = [13, 1]", fillcolor="#e78b48"] ;
172 -> 173 ;
174 [label="X[6] <= 3.0\nentropy = 0.65\nsamples = 5\nvalue = [5, 1]", fillcolor="#ea9a61"] ;
173 -> 174 ;
175 [label="entropy = 0.0\nsamples = 1\nvalue = [0, 1]", fillcolor="#399de5"] ;
174 -> 175 ;
176 [label="entropy = 0.0\nsamples = 4\nvalue = [5, 0]", fillcolor="#e58139"] ;
174 -> 176 ;
177 [label="entropy = 0.0\nsamples = 4\nvalue = [8, 0]", fillcolor="#e58139"] ;
173 -> 177 ;
178 [label="entropy = 0.0\nsamples = 4\nvalue = [7, 0]", fillcolor="#e58139"] ;
172 -> 178 ;
179 [label="X[2] <= 184.85\nentropy = 0.902\nsamples = 16\nvalue = [15, 7]", fillcolor="#f1bc95"] ;
159 -> 179 ;
180 [label="entropy = 0.0\nsamples = 1\nvalue = [0, 4]", fillcolor="#399de5"] ;
179 -> 180 ;
181 [label="X[4] <= 193.75\nentropy = 0.65\nsamples = 15\nvalue = [15, 3]", fillcolor="#ea9a61"] ;
179 -> 181 ;
182 [label="entropy = 0.0\nsamples = 1\nvalue = [0, 1]", fillcolor="#399de5"] ;
181 -> 182 ;
183 [label="X[1] <= 0.5\nentropy = 0.523\nsamples = 14\nvalue = [15, 2]", fillcolor="#e89253"] ;
181 -> 183 ;
184 [label="entropy = 0.0\nsamples = 8\nvalue = [10, 0]", fillcolor="#e58139"] ;
183 -> 184 ;
185 [label="X[2] <= 189.55\nentropy = 0.863\nsamples = 6\nvalue = [5, 2]", fillcolor="#efb388"] ;
183 -> 185 ;
186 [label="entropy = 0.0\nsamples = 1\nvalue = [0, 1]", fillcolor="#399de5"] ;
185 -> 186 ;
187 [label="X[2] <= 214.85\nentropy = 0.65\nsamples = 5\nvalue = [5, 1]", fillcolor="#ea9a61"] ;
185 -> 187 ;
188 [label="entropy = 0.0\nsamples = 2\nvalue = [2, 0]", fillcolor="#e58139"] ;
187 -> 188 ;
189 [label="X[5] <= 10.0\nentropy = 0.811\nsamples = 3\nvalue = [3, 1]", fillcolor="#eeab7b"] ;
187 -> 189 ;
190 [label="X[2] <= 216.55\nentropy = 1.0\nsamples = 2\nvalue = [1, 1]", fillcolor="#ffffff"] ;
189 -> 190 ;
191 [label="entropy = 0.0\nsamples = 1\nvalue = [0, 1]", fillcolor="#399de5"] ;
190 -> 191 ;
192 [label="entropy = 0.0\nsamples = 1\nvalue = [1, 0]", fillcolor="#e58139"] ;
190 -> 192 ;
193 [label="entropy = 0.0\nsamples = 1\nvalue = [2, 0]", fillcolor="#e58139"] ;
189 -> 193 ;
194 [label="entropy = 0.0\nsamples = 3\nvalue = [7, 0]", fillcolor="#e58139"] ;
150 -> 194 ;
195 [label="X[6] <= 5.5\nentropy = 0.045\nsamples = 131\nvalue = [201, 1]", fillcolor="#e5823a"] ;
61 -> 195 ;
196 [label="entropy = 0.0\nsamples = 96\nvalue = [150, 0]", fillcolor="#e58139"] ;
195 -> 196 ;
197 [label="X[5] <= 13.45\nentropy = 0.137\nsamples = 35\nvalue = [51, 1]", fillcolor="#e6833d"] ;
195 -> 197 ;
198 [label="entropy = 0.0\nsamples = 18\nvalue = [29, 0]", fillcolor="#e58139"] ;
197 -> 198 ;
199 [label="X[5] <= 13.55\nentropy = 0.258\nsamples = 17\nvalue = [22, 1]", fillcolor="#e68742"] ;
197 -> 199 ;
200 [label="entropy = 0.0\nsamples = 1\nvalue = [0, 1]", fillcolor="#399de5"] ;
199 -> 200 ;
201 [label="entropy = 0.0\nsamples = 16\nvalue = [22, 0]", fillcolor="#e58139"] ;
199 -> 201 ;
202 [label="entropy = 0.0\nsamples = 48\nvalue = [67, 0]", fillcolor="#e58139"] ;
60 -> 202 ;
203 [label="entropy = 0.0\nsamples = 114\nvalue = [173, 0]", fillcolor="#e58139"] ;
35 -> 203 ;
204 [label="X[6] <= 2.5\nentropy = 0.877\nsamples = 81\nvalue = [90, 38]", fillcolor="#f0b68d"] ;
34 -> 204 ;
205 [label="entropy = 0.0\nsamples = 18\nvalue = [0, 28]", fillcolor="#399de5"] ;
204 -> 205 ;
206 [label="X[2] <= 126.55\nentropy = 0.469\nsamples = 63\nvalue = [90, 10]", fillcolor="#e88f4f"] ;
204 -> 206 ;
207 [label="X[5] <= 13.3\nentropy = 0.828\nsamples = 15\nvalue = [17, 6]", fillcolor="#eead7f"] ;
206 -> 207 ;
208 [label="entropy = 0.0\nsamples = 11\nvalue = [17, 0]", fillcolor="#e58139"] ;
207 -> 208 ;
209 [label="entropy = 0.0\nsamples = 4\nvalue = [0, 6]", fillcolor="#399de5"] ;
207 -> 209 ;
210 [label="X[7] <= 0.5\nentropy = 0.295\nsamples = 48\nvalue = [73, 4]", fillcolor="#e68844"] ;
206 -> 210 ;
211 [label="X[6] <= 14.0\nentropy = 0.575\nsamples = 12\nvalue = [19, 3]", fillcolor="#e99558"] ;
210 -> 211 ;
212 [label="X[2] <= 166.05\nentropy = 0.485\nsamples = 10\nvalue = [17, 2]", fillcolor="#e89050"] ;
211 -> 212 ;
213 [label="entropy = 0.0\nsamples = 3\nvalue = [7, 0]", fillcolor="#e58139"] ;
212 -> 213 ;
214 [label="X[4] <= 221.8\nentropy = 0.65\nsamples = 7\nvalue = [10, 2]", fillcolor="#ea9a61"] ;
212 -> 214 ;
215 [label="X[1] <= 0.5\nentropy = 0.971\nsamples = 3\nvalue = [3, 2]", fillcolor="#f6d5bd"] ;
214 -> 215 ;
216 [label="entropy = 0.0\nsamples = 1\nvalue = [3, 0]", fillcolor="#e58139"] ;
215 -> 216 ;
217 [label="entropy = 0.0\nsamples = 2\nvalue = [0, 2]", fillcolor="#399de5"] ;
215 -> 217 ;
218 [label="entropy = 0.0\nsamples = 4\nvalue = [7, 0]", fillcolor="#e58139"] ;
214 -> 218 ;
219 [label="X[1] <= 0.5\nentropy = 0.918\nsamples = 2\nvalue = [2, 1]", fillcolor="#f2c09c"] ;
211 -> 219 ;
220 [label="entropy = 0.0\nsamples = 1\nvalue = [2, 0]", fillcolor="#e58139"] ;
219 -> 220 ;
221 [label="entropy = 0.0\nsamples = 1\nvalue = [0, 1]", fillcolor="#399de5"] ;
219 -> 221 ;
222 [label="X[1] <= 0.5\nentropy = 0.131\nsamples = 36\nvalue = [54, 1]", fillcolor="#e5833d"] ;
210 -> 222 ;
223 [label="X[3] <= 170.9\nentropy = 0.176\nsamples = 24\nvalue = [37, 1]", fillcolor="#e6843e"] ;
222 -> 223 ;
224 [label="X[5] <= 13.15\nentropy = 0.592\nsamples = 6\nvalue = [6, 1]", fillcolor="#e9965a"] ;
223 -> 224 ;
225 [label="entropy = 0.0\nsamples = 5\nvalue = [6, 0]", fillcolor="#e58139"] ;
224 -> 225 ;
226 [label="entropy = 0.0\nsamples = 1\nvalue = [0, 1]", fillcolor="#399de5"] ;
224 -> 226 ;
227 [label="entropy = 0.0\nsamples = 18\nvalue = [31, 0]", fillcolor="#e58139"] ;
223 -> 227 ;
228 [label="entropy = 0.0\nsamples = 12\nvalue = [17, 0]", fillcolor="#e58139"] ;
222 -> 228 ;
229 [label="entropy = 0.0\nsamples = 1\nvalue = [0, 4]", fillcolor="#399de5"] ;
33 -> 229 ;
230 [label="X[5] <= 13.45\nentropy = 0.649\nsamples = 196\nvalue = [266, 53]", fillcolor="#ea9a60"] ;
32 -> 230 ;
231 [label="X[0] <= 0.5\nentropy = 0.583\nsamples = 181\nvalue = [253, 41]", fillcolor="#e99559"] ;
230 -> 231 ;
232 [label="X[2] <= 217.65\nentropy = 0.495\nsamples = 158\nvalue = [230, 28]", fillcolor="#e89051"] ;
231 -> 232 ;
233 [label="X[1] <= 0.5\nentropy = 0.985\nsamples = 4\nvalue = [3, 4]", fillcolor="#cee6f8"] ;
232 -> 233 ;
234 [label="X[4] <= 173.9\nentropy = 0.722\nsamples = 3\nvalue = [1, 4]", fillcolor="#6ab6ec"] ;
233 -> 234 ;
235 [label="entropy = 0.0\nsamples = 1\nvalue = [1, 0]", fillcolor="#e58139"] ;
234 -> 235 ;
236 [label="entropy = 0.0\nsamples = 2\nvalue = [0, 4]", fillcolor="#399de5"] ;
234 -> 236 ;
237 [label="entropy = 0.0\nsamples = 1\nvalue = [2, 0]", fillcolor="#e58139"] ;
233 -> 237 ;
238 [label="X[4] <= 165.45\nentropy = 0.455\nsamples = 154\nvalue = [227, 24]", fillcolor="#e88e4e"] ;
232 -> 238 ;
239 [label="entropy = 0.0\nsamples = 32\nvalue = [55, 0]", fillcolor="#e58139"] ;
238 -> 239 ;
240 [label="X[6] <= 7.5\nentropy = 0.536\nsamples = 122\nvalue = [172, 24]", fillcolor="#e99355"] ;
238 -> 240 ;
241 [label="X[5] <= 11.45\nentropy = 0.573\nsamples = 110\nvalue = [153, 24]", fillcolor="#e99558"] ;
240 -> 241 ;
242 [label="X[3] <= 267.95\nentropy = 0.656\nsamples = 84\nvalue = [108, 22]", fillcolor="#ea9b61"] ;
241 -> 242 ;
243 [label="X[5] <= 10.45\nentropy = 0.434\nsamples = 71\nvalue = [102, 10]", fillcolor="#e88d4c"] ;
242 -> 243 ;
244 [label="X[7] <= 0.5\nentropy = 0.216\nsamples = 55\nvalue = [84, 3]", fillcolor="#e68640"] ;
243 -> 244 ;
245 [label="X[3] <= 250.2\nentropy = 0.544\nsamples = 12\nvalue = [14, 2]", fillcolor="#e99355"] ;
244 -> 245 ;
246 [label="X[5] <= 5.45\nentropy = 0.371\nsamples = 10\nvalue = [13, 1]", fillcolor="#e78b48"] ;
245 -> 246 ;
247 [label="X[4] <= 232.85\nentropy = 0.918\nsamples = 2\nvalue = [2, 1]", fillcolor="#f2c09c"] ;
246 -> 247 ;
248 [label="entropy = 0.0\nsamples = 1\nvalue = [0, 1]", fillcolor="#399de5"] ;
247 -> 248 ;
249 [label="entropy = 0.0\nsamples = 1\nvalue = [2, 0]", fillcolor="#e58139"] ;
247 -> 249 ;
250 [label="entropy = 0.0\nsamples = 8\nvalue = [11, 0]", fillcolor="#e58139"] ;
246 -> 250 ;
251 [label="X[5] <= 5.65\nentropy = 1.0\nsamples = 2\nvalue = [1, 1]", fillcolor="#ffffff"] ;
245 -> 251 ;
252 [label="entropy = 0.0\nsamples = 1\nvalue = [1, 0]", fillcolor="#e58139"] ;
251 -> 252 ;
253 [label="entropy = 0.0\nsamples = 1\nvalue = [0, 1]", fillcolor="#399de5"] ;
251 -> 253 ;
254 [label="X[2] <= 224.95\nentropy = 0.107\nsamples = 43\nvalue = [70, 1]", fillcolor="#e5833c"] ;
244 -> 254 ;
255 [label="X[2] <= 223.85\nentropy = 0.414\nsamples = 9\nvalue = [11, 1]", fillcolor="#e78c4b"] ;
254 -> 255 ;
256 [label="entropy = 0.0\nsamples = 8\nvalue = [11, 0]", fillcolor="#e58139"] ;
255 -> 256 ;
257 [label="entropy = 0.0\nsamples = 1\nvalue = [0, 1]", fillcolor="#399de5"] ;
255 -> 257 ;
258 [label="entropy = 0.0\nsamples = 34\nvalue = [59, 0]", fillcolor="#e58139"] ;
254 -> 258 ;
259 [label="X[2] <= 224.55\nentropy = 0.855\nsamples = 16\nvalue = [18, 7]", fillcolor="#efb286"] ;
243 -> 259 ;
260 [label="entropy = 0.0\nsamples = 6\nvalue = [8, 0]", fillcolor="#e58139"] ;
259 -> 260 ;
261 [label="X[6] <= 6.5\nentropy = 0.977\nsamples = 10\nvalue = [10, 7]", fillcolor="#f7d9c4"] ;
259 -> 261 ;
262 [label="X[5] <= 11.15\nentropy = 0.918\nsamples = 9\nvalue = [10, 5]", fillcolor="#f2c09c"] ;
261 -> 262 ;
263 [label="X[2] <= 236.9\nentropy = 0.994\nsamples = 8\nvalue = [6, 5]", fillcolor="#fbeade"] ;
262 -> 263 ;
264 [label="X[6] <= 5.5\nentropy = 0.863\nsamples = 5\nvalue = [2, 5]", fillcolor="#88c4ef"] ;
263 -> 264 ;
265 [label="X[2] <= 231.0\nentropy = 0.65\nsamples = 4\nvalue = [1, 5]", fillcolor="#61b1ea"] ;
264 -> 265 ;
266 [label="entropy = 0.0\nsamples = 2\nvalue = [0, 3]", fillcolor="#399de5"] ;
265 -> 266 ;
267 [label="X[2] <= 234.5\nentropy = 0.918\nsamples = 2\nvalue = [1, 2]", fillcolor="#9ccef2"] ;
265 -> 267 ;
268 [label="entropy = 0.0\nsamples = 1\nvalue = [1, 0]", fillcolor="#e58139"] ;
267 -> 268 ;
269 [label="entropy = 0.0\nsamples = 1\nvalue = [0, 2]", fillcolor="#399de5"] ;
267 -> 269 ;
270 [label="entropy = 0.0\nsamples = 1\nvalue = [1, 0]", fillcolor="#e58139"] ;
264 -> 270 ;
271 [label="entropy = 0.0\nsamples = 3\nvalue = [4, 0]", fillcolor="#e58139"] ;
263 -> 271 ;
272 [label="entropy = 0.0\nsamples = 1\nvalue = [4, 0]", fillcolor="#e58139"] ;
262 -> 272 ;
273 [label="entropy = 0.0\nsamples = 1\nvalue = [0, 2]", fillcolor="#399de5"] ;
261 -> 273 ;
274 [label="X[1] <= 0.5\nentropy = 0.918\nsamples = 13\nvalue = [6, 12]", fillcolor="#9ccef2"] ;
242 -> 274 ;
275 [label="X[5] <= 4.1\nentropy = 0.722\nsamples = 10\nvalue = [3, 12]", fillcolor="#6ab6ec"] ;
274 -> 275 ;
276 [label="entropy = 0.0\nsamples = 1\nvalue = [1, 0]", fillcolor="#e58139"] ;
275 -> 276 ;
277 [label="X[3] <= 273.7\nentropy = 0.592\nsamples = 9\nvalue = [2, 12]", fillcolor="#5aade9"] ;
275 -> 277 ;
278 [label="X[5] <= 9.85\nentropy = 1.0\nsamples = 2\nvalue = [2, 2]", fillcolor="#ffffff"] ;
277 -> 278 ;
279 [label="entropy = 0.0\nsamples = 1\nvalue = [2, 0]", fillcolor="#e58139"] ;
278 -> 279 ;
280 [label="entropy = 0.0\nsamples = 1\nvalue = [0, 2]", fillcolor="#399de5"] ;
278 -> 280 ;
281 [label="entropy = 0.0\nsamples = 7\nvalue = [0, 10]", fillcolor="#399de5"] ;
277 -> 281 ;
282 [label="entropy = 0.0\nsamples = 3\nvalue = [3, 0]", fillcolor="#e58139"] ;
274 -> 282 ;
283 [label="X[6] <= 3.5\nentropy = 0.254\nsamples = 26\nvalue = [45, 2]", fillcolor="#e68742"] ;
241 -> 283 ;
284 [label="entropy = 0.0\nsamples = 12\nvalue = [26, 0]", fillcolor="#e58139"] ;
283 -> 284 ;
285 [label="X[3] <= 283.45\nentropy = 0.454\nsamples = 14\nvalue = [19, 2]", fillcolor="#e88e4e"] ;
283 -> 285 ;
286 [label="entropy = 0.0\nsamples = 12\nvalue = [19, 0]", fillcolor="#e58139"] ;
285 -> 286 ;
287 [label="entropy = 0.0\nsamples = 2\nvalue = [0, 2]", fillcolor="#399de5"] ;
285 -> 287 ;
288 [label="entropy = 0.0\nsamples = 12\nvalue = [19, 0]", fillcolor="#e58139"] ;
240 -> 288 ;
289 [label="X[5] <= 4.3\nentropy = 0.944\nsamples = 23\nvalue = [23, 13]", fillcolor="#f4c8a9"] ;
231 -> 289 ;
290 [label="entropy = 0.0\nsamples = 1\nvalue = [0, 2]", fillcolor="#399de5"] ;
289 -> 290 ;
291 [label="X[4] <= 211.9\nentropy = 0.908\nsamples = 22\nvalue = [23, 11]", fillcolor="#f1bd98"] ;
289 -> 291 ;
292 [label="X[2] <= 219.9\nentropy = 0.998\nsamples = 14\nvalue = [11, 10]", fillcolor="#fdf4ed"] ;
291 -> 292 ;
293 [label="entropy = 0.0\nsamples = 2\nvalue = [3, 0]", fillcolor="#e58139"] ;
292 -> 293 ;
294 [label="X[3] <= 243.45\nentropy = 0.991\nsamples = 12\nvalue = [8, 10]", fillcolor="#d7ebfa"] ;
292 -> 294 ;
295 [label="X[2] <= 233.65\nentropy = 0.985\nsamples = 9\nvalue = [8, 6]", fillcolor="#f8e0ce"] ;
294 -> 295 ;
296 [label="entropy = 0.0\nsamples = 3\nvalue = [0, 5]", fillcolor="#399de5"] ;
295 -> 296 ;
297 [label="X[7] <= 1.5\nentropy = 0.503\nsamples = 6\nvalue = [8, 1]", fillcolor="#e89152"] ;
295 -> 297 ;
298 [label="entropy = 0.0\nsamples = 3\nvalue = [5, 0]", fillcolor="#e58139"] ;
297 -> 298 ;
299 [label="X[2] <= 241.35\nentropy = 0.811\nsamples = 3\nvalue = [3, 1]", fillcolor="#eeab7b"] ;
297 -> 299 ;
300 [label="entropy = 0.0\nsamples = 2\nvalue = [3, 0]", fillcolor="#e58139"] ;
299 -> 300 ;
301 [label="entropy = 0.0\nsamples = 1\nvalue = [0, 1]", fillcolor="#399de5"] ;
299 -> 301 ;
302 [label="entropy = 0.0\nsamples = 3\nvalue = [0, 4]", fillcolor="#399de5"] ;
294 -> 302 ;
303 [label="X[4] <= 238.85\nentropy = 0.391\nsamples = 8\nvalue = [12, 1]", fillcolor="#e78c49"] ;
291 -> 303 ;
304 [label="entropy = 0.0\nsamples = 4\nvalue = [7, 0]", fillcolor="#e58139"] ;
303 -> 304 ;
305 [label="X[4] <= 249.6\nentropy = 0.65\nsamples = 4\nvalue = [5, 1]", fillcolor="#ea9a61"] ;
303 -> 305 ;
306 [label="entropy = 0.0\nsamples = 1\nvalue = [0, 1]", fillcolor="#399de5"] ;
305 -> 306 ;
307 [label="entropy = 0.0\nsamples = 3\nvalue = [5, 0]", fillcolor="#e58139"] ;
305 -> 307 ;
308 [label="X[3] <= 249.35\nentropy = 0.999\nsamples = 15\nvalue = [13, 12]", fillcolor="#fdf5f0"] ;
230 -> 308 ;
309 [label="X[3] <= 187.45\nentropy = 0.787\nsamples = 11\nvalue = [13, 4]", fillcolor="#eda876"] ;
308 -> 309 ;
310 [label="X[6] <= 6.5\nentropy = 1.0\nsamples = 4\nvalue = [4, 4]", fillcolor="#ffffff"] ;
309 -> 310 ;
311 [label="X[2] <= 230.25\nentropy = 0.722\nsamples = 3\nvalue = [1, 4]", fillcolor="#6ab6ec"] ;
310 -> 311 ;
312 [label="entropy = 0.0\nsamples = 1\nvalue = [1, 0]", fillcolor="#e58139"] ;
311 -> 312 ;
313 [label="entropy = 0.0\nsamples = 2\nvalue = [0, 4]", fillcolor="#399de5"] ;
311 -> 313 ;
314 [label="entropy = 0.0\nsamples = 1\nvalue = [3, 0]", fillcolor="#e58139"] ;
310 -> 314 ;
315 [label="entropy = 0.0\nsamples = 7\nvalue = [9, 0]", fillcolor="#e58139"] ;
309 -> 315 ;
316 [label="entropy = 0.0\nsamples = 4\nvalue = [0, 8]", fillcolor="#399de5"] ;
308 -> 316 ;
317 [label="X[2] <= 176.05\nentropy = 0.995\nsamples = 125\nvalue = [106, 90]", fillcolor="#fbece1"] ;
31 -> 317 ;
318 [label="X[3] <= 216.6\nentropy = 0.793\nsamples = 70\nvalue = [26, 83]", fillcolor="#77bced"] ;
317 -> 318 ;
319 [label="X[3] <= 190.8\nentropy = 0.264\nsamples = 42\nvalue = [3, 64]", fillcolor="#42a2e6"] ;
318 -> 319 ;
320 [label="entropy = 0.0\nsamples = 28\nvalue = [0, 39]", fillcolor="#399de5"] ;
319 -> 320 ;
321 [label="X[4] <= 218.35\nentropy = 0.491\nsamples = 14\nvalue = [3, 25]", fillcolor="#51a9e8"] ;
319 -> 321 ;
322 [label="entropy = 0.0\nsamples = 10\nvalue = [0, 22]", fillcolor="#399de5"] ;
321 -> 322 ;
323 [label="X[7] <= 4.5\nentropy = 1.0\nsamples = 4\nvalue = [3, 3]", fillcolor="#ffffff"] ;
321 -> 323 ;
324 [label="entropy = 0.0\nsamples = 2\nvalue = [3, 0]", fillcolor="#e58139"] ;
323 -> 324 ;
325 [label="entropy = 0.0\nsamples = 2\nvalue = [0, 3]", fillcolor="#399de5"] ;
323 -> 325 ;
326 [label="X[3] <= 217.85\nentropy = 0.993\nsamples = 28\nvalue = [23, 19]", fillcolor="#fae9dd"] ;
318 -> 326 ;
327 [label="entropy = 0.0\nsamples = 1\nvalue = [3, 0]", fillcolor="#e58139"] ;
326 -> 327 ;
328 [label="X[2] <= 119.55\nentropy = 1.0\nsamples = 27\nvalue = [20, 19]", fillcolor="#fef9f5"] ;
326 -> 328 ;
329 [label="entropy = 0.0\nsamples = 9\nvalue = [0, 12]", fillcolor="#399de5"] ;
328 -> 329 ;
330 [label="X[3] <= 230.8\nentropy = 0.826\nsamples = 18\nvalue = [20, 7]", fillcolor="#eead7e"] ;
328 -> 330 ;
331 [label="entropy = 0.0\nsamples = 3\nvalue = [0, 4]", fillcolor="#399de5"] ;
330 -> 331 ;
332 [label="X[4] <= 146.55\nentropy = 0.559\nsamples = 15\nvalue = [20, 3]", fillcolor="#e99457"] ;
330 -> 332 ;
333 [label="entropy = 0.0\nsamples = 1\nvalue = [0, 1]", fillcolor="#399de5"] ;
332 -> 333 ;
334 [label="X[4] <= 215.8\nentropy = 0.439\nsamples = 14\nvalue = [20, 2]", fillcolor="#e88e4d"] ;
332 -> 334 ;
335 [label="entropy = 0.0\nsamples = 10\nvalue = [16, 0]", fillcolor="#e58139"] ;
334 -> 335 ;
336 [label="X[0] <= 0.5\nentropy = 0.918\nsamples = 4\nvalue = [4, 2]", fillcolor="#f2c09c"] ;
334 -> 336 ;
337 [label="X[3] <= 248.55\nentropy = 0.722\nsamples = 3\nvalue = [4, 1]", fillcolor="#eca06a"] ;
336 -> 337 ;
338 [label="entropy = 0.0\nsamples = 1\nvalue = [0, 1]", fillcolor="#399de5"] ;
337 -> 338 ;
339 [label="entropy = 0.0\nsamples = 2\nvalue = [4, 0]", fillcolor="#e58139"] ;
337 -> 339 ;
340 [label="entropy = 0.0\nsamples = 1\nvalue = [0, 1]", fillcolor="#399de5"] ;
336 -> 340 ;
341 [label="X[0] <= 0.5\nentropy = 0.404\nsamples = 55\nvalue = [80, 7]", fillcolor="#e78c4a"] ;
317 -> 341 ;
342 [label="X[1] <= 0.5\nentropy = 0.101\nsamples = 47\nvalue = [75, 1]", fillcolor="#e5833c"] ;
341 -> 342 ;
343 [label="X[3] <= 131.75\nentropy = 0.129\nsamples = 35\nvalue = [55, 1]", fillcolor="#e5833d"] ;
342 -> 343 ;
344 [label="X[4] <= 195.25\nentropy = 0.918\nsamples = 2\nvalue = [2, 1]", fillcolor="#f2c09c"] ;
343 -> 344 ;
345 [label="entropy = 0.0\nsamples = 1\nvalue = [0, 1]", fillcolor="#399de5"] ;
344 -> 345 ;
346 [label="entropy = 0.0\nsamples = 1\nvalue = [2, 0]", fillcolor="#e58139"] ;
344 -> 346 ;
347 [label="entropy = 0.0\nsamples = 33\nvalue = [53, 0]", fillcolor="#e58139"] ;
343 -> 347 ;
348 [label="entropy = 0.0\nsamples = 12\nvalue = [20, 0]", fillcolor="#e58139"] ;
342 -> 348 ;
349 [label="X[2] <= 187.5\nentropy = 0.994\nsamples = 8\nvalue = [5, 6]", fillcolor="#deeffb"] ;
341 -> 349 ;
350 [label="entropy = 0.0\nsamples = 1\nvalue = [0, 2]", fillcolor="#399de5"] ;
349 -> 350 ;
351 [label="X[3] <= 243.85\nentropy = 0.991\nsamples = 7\nvalue = [5, 4]", fillcolor="#fae6d7"] ;
349 -> 351 ;
352 [label="entropy = 0.0\nsamples = 5\nvalue = [5, 0]", fillcolor="#e58139"] ;
351 -> 352 ;
353 [label="entropy = 0.0\nsamples = 2\nvalue = [0, 4]", fillcolor="#399de5"] ;
351 -> 353 ;
354 [label="X[3] <= 229.6\nentropy = 0.995\nsamples = 177\nvalue = [127, 149]", fillcolor="#e2f1fb"] ;
0 -> 354 [labeldistance=2.5, labelangle=-45, headlabel="False"] ;
355 [label="X[2] <= 263.55\nentropy = 0.944\nsamples = 121\nvalue = [115, 65]", fillcolor="#f4c8a9"] ;
354 -> 355 ;
356 [label="X[5] <= 16.15\nentropy = 0.631\nsamples = 54\nvalue = [69, 13]", fillcolor="#ea995e"] ;
355 -> 356 ;
357 [label="X[4] <= 186.2\nentropy = 0.548\nsamples = 53\nvalue = [69, 10]", fillcolor="#e99356"] ;
356 -> 357 ;
358 [label="entropy = 0.0\nsamples = 30\nvalue = [42, 0]", fillcolor="#e58139"] ;
357 -> 358 ;
359 [label="X[0] <= 0.5\nentropy = 0.842\nsamples = 23\nvalue = [27, 10]", fillcolor="#efb082"] ;
357 -> 359 ;
360 [label="X[4] <= 187.8\nentropy = 0.625\nsamples = 20\nvalue = [27, 5]", fillcolor="#ea985e"] ;
359 -> 360 ;
361 [label="entropy = 0.0\nsamples = 1\nvalue = [0, 1]", fillcolor="#399de5"] ;
360 -> 361 ;
362 [label="X[4] <= 242.1\nentropy = 0.555\nsamples = 19\nvalue = [27, 4]", fillcolor="#e99456"] ;
360 -> 362 ;
363 [label="entropy = 0.0\nsamples = 10\nvalue = [17, 0]", fillcolor="#e58139"] ;
362 -> 363 ;
364 [label="X[6] <= 5.5\nentropy = 0.863\nsamples = 9\nvalue = [10, 4]", fillcolor="#efb388"] ;
362 -> 364 ;
365 [label="X[3] <= 225.25\nentropy = 0.439\nsamples = 7\nvalue = [10, 1]", fillcolor="#e88e4d"] ;
364 -> 365 ;
366 [label="entropy = 0.0\nsamples = 6\nvalue = [10, 0]", fillcolor="#e58139"] ;
365 -> 366 ;
367 [label="entropy = 0.0\nsamples = 1\nvalue = [0, 1]", fillcolor="#399de5"] ;
365 -> 367 ;
368 [label="entropy = 0.0\nsamples = 2\nvalue = [0, 3]", fillcolor="#399de5"] ;
364 -> 368 ;
369 [label="entropy = 0.0\nsamples = 3\nvalue = [0, 5]", fillcolor="#399de5"] ;
359 -> 369 ;
370 [label="entropy = 0.0\nsamples = 1\nvalue = [0, 3]", fillcolor="#399de5"] ;
356 -> 370 ;
371 [label="X[1] <= 0.5\nentropy = 0.997\nsamples = 67\nvalue = [46, 52]", fillcolor="#e8f4fc"] ;
355 -> 371 ;
372 [label="X[6] <= 1.5\nentropy = 0.849\nsamples = 49\nvalue = [19, 50]", fillcolor="#84c2ef"] ;
371 -> 372 ;
373 [label="entropy = 0.0\nsamples = 2\nvalue = [2, 0]", fillcolor="#e58139"] ;
372 -> 373 ;
374 [label="X[7] <= 4.5\nentropy = 0.817\nsamples = 47\nvalue = [17, 50]", fillcolor="#7cbeee"] ;
372 -> 374 ;
375 [label="X[3] <= 142.5\nentropy = 0.758\nsamples = 46\nvalue = [14, 50]", fillcolor="#70b8ec"] ;
374 -> 375 ;
376 [label="entropy = 0.0\nsamples = 7\nvalue = [9, 0]", fillcolor="#e58139"] ;
375 -> 376 ;
377 [label="X[6] <= 8.5\nentropy = 0.439\nsamples = 39\nvalue = [5, 50]", fillcolor="#4da7e8"] ;
375 -> 377 ;
378 [label="X[5] <= 10.35\nentropy = 0.342\nsamples = 33\nvalue = [3, 44]", fillcolor="#46a4e7"] ;
377 -> 378 ;
379 [label="X[2] <= 273.6\nentropy = 0.544\nsamples = 17\nvalue = [3, 21]", fillcolor="#55abe9"] ;
378 -> 379 ;
380 [label="X[3] <= 183.75\nentropy = 0.918\nsamples = 7\nvalue = [3, 6]", fillcolor="#9ccef2"] ;
379 -> 380 ;
381 [label="X[3] <= 161.3\nentropy = 0.811\nsamples = 4\nvalue = [3, 1]", fillcolor="#eeab7b"] ;
380 -> 381 ;
382 [label="entropy = 0.0\nsamples = 1\nvalue = [0, 1]", fillcolor="#399de5"] ;
381 -> 382 ;
383 [label="entropy = 0.0\nsamples = 3\nvalue = [3, 0]", fillcolor="#e58139"] ;
381 -> 383 ;
384 [label="entropy = 0.0\nsamples = 3\nvalue = [0, 5]", fillcolor="#399de5"] ;
380 -> 384 ;
385 [label="entropy = 0.0\nsamples = 10\nvalue = [0, 15]", fillcolor="#399de5"] ;
379 -> 385 ;
386 [label="entropy = 0.0\nsamples = 16\nvalue = [0, 23]", fillcolor="#399de5"] ;
378 -> 386 ;
387 [label="X[4] <= 194.45\nentropy = 0.811\nsamples = 6\nvalue = [2, 6]", fillcolor="#7bbeee"] ;
377 -> 387 ;
388 [label="entropy = 0.0\nsamples = 2\nvalue = [2, 0]", fillcolor="#e58139"] ;
387 -> 388 ;
389 [label="entropy = 0.0\nsamples = 4\nvalue = [0, 6]", fillcolor="#399de5"] ;
387 -> 389 ;
390 [label="entropy = 0.0\nsamples = 1\nvalue = [3, 0]", fillcolor="#e58139"] ;
374 -> 390 ;
391 [label="X[5] <= 13.6\nentropy = 0.362\nsamples = 18\nvalue = [27, 2]", fillcolor="#e78a48"] ;
371 -> 391 ;
392 [label="entropy = 0.0\nsamples = 15\nvalue = [25, 0]", fillcolor="#e58139"] ;
391 -> 392 ;
393 [label="X[0] <= 0.5\nentropy = 1.0\nsamples = 3\nvalue = [2, 2]", fillcolor="#ffffff"] ;
391 -> 393 ;
394 [label="entropy = 0.0\nsamples = 2\nvalue = [2, 0]", fillcolor="#e58139"] ;
393 -> 394 ;
395 [label="entropy = 0.0\nsamples = 1\nvalue = [0, 2]", fillcolor="#399de5"] ;
393 -> 395 ;
396 [label="X[7] <= 2.5\nentropy = 0.544\nsamples = 56\nvalue = [12, 84]", fillcolor="#55abe9"] ;
354 -> 396 ;
397 [label="X[2] <= 260.45\nentropy = 0.485\nsamples = 43\nvalue = [8, 68]", fillcolor="#50a9e8"] ;
396 -> 397 ;
398 [label="entropy = 0.0\nsamples = 11\nvalue = [0, 22]", fillcolor="#399de5"] ;
397 -> 398 ;
399 [label="X[2] <= 261.3\nentropy = 0.605\nsamples = 32\nvalue = [8, 46]", fillcolor="#5baeea"] ;
397 -> 399 ;
400 [label="entropy = 0.0\nsamples = 1\nvalue = [2, 0]", fillcolor="#e58139"] ;
399 -> 400 ;
401 [label="X[1] <= 0.5\nentropy = 0.516\nsamples = 31\nvalue = [6, 46]", fillcolor="#53aae8"] ;
399 -> 401 ;
402 [label="entropy = 0.0\nsamples = 23\nvalue = [0, 42]", fillcolor="#399de5"] ;
401 -> 402 ;
403 [label="X[6] <= 3.5\nentropy = 0.971\nsamples = 8\nvalue = [6, 4]", fillcolor="#f6d5bd"] ;
401 -> 403 ;
404 [label="X[3] <= 250.6\nentropy = 0.722\nsamples = 4\nvalue = [1, 4]", fillcolor="#6ab6ec"] ;
403 -> 404 ;
405 [label="entropy = 0.0\nsamples = 1\nvalue = [1, 0]", fillcolor="#e58139"] ;
404 -> 405 ;
406 [label="entropy = 0.0\nsamples = 3\nvalue = [0, 4]", fillcolor="#399de5"] ;
404 -> 406 ;
407 [label="entropy = 0.0\nsamples = 4\nvalue = [5, 0]", fillcolor="#e58139"] ;
403 -> 407 ;
408 [label="X[5] <= 11.55\nentropy = 0.722\nsamples = 13\nvalue = [4, 16]", fillcolor="#6ab6ec"] ;
396 -> 408 ;
409 [label="X[2] <= 265.85\nentropy = 0.863\nsamples = 10\nvalue = [4, 10]", fillcolor="#88c4ef"] ;
408 -> 409 ;
410 [label="X[2] <= 257.5\nentropy = 0.991\nsamples = 6\nvalue = [4, 5]", fillcolor="#d7ebfa"] ;
409 -> 410 ;
411 [label="X[2] <= 254.15\nentropy = 0.863\nsamples = 5\nvalue = [2, 5]", fillcolor="#88c4ef"] ;
410 -> 411 ;
412 [label="X[2] <= 251.4\nentropy = 1.0\nsamples = 3\nvalue = [2, 2]", fillcolor="#ffffff"] ;
411 -> 412 ;
413 [label="entropy = 0.0\nsamples = 1\nvalue = [0, 2]", fillcolor="#399de5"] ;
412 -> 413 ;
414 [label="entropy = 0.0\nsamples = 2\nvalue = [2, 0]", fillcolor="#e58139"] ;
412 -> 414 ;
415 [label="entropy = 0.0\nsamples = 2\nvalue = [0, 3]", fillcolor="#399de5"] ;
411 -> 415 ;
416 [label="entropy = 0.0\nsamples = 1\nvalue = [2, 0]", fillcolor="#e58139"] ;
410 -> 416 ;
417 [label="entropy = 0.0\nsamples = 4\nvalue = [0, 5]", fillcolor="#399de5"] ;
409 -> 417 ;
418 [label="entropy = 0.0\nsamples = 3\nvalue = [0, 6]", fillcolor="#399de5"] ;
408 -> 418 ;
}
